<?xml version="1.0"?>
<opencv_storage>
<stage12>
  <maxWeakCount>13</maxWeakCount>
  <stageThreshold>-8.6130630970001221e-01</stageThreshold>
  <weakClassifiers>
    <_>
      <internalNodes>
        0 -1 119343 -6.1395512893795967e-03</internalNodes>
      <leafValues>
        6.4021164178848267e-01 -9.9526070058345795e-02</leafValues></_>
    <_>
      <internalNodes>
        0 -1 118925 -2.4882107973098755e-03</internalNodes>
      <leafValues>
        1.9772849977016449e-01 -8.0804610252380371e-01</leafValues></_>
    <_>
      <internalNodes>
        0 -1 101694 4.4313250109553337e-03</internalNodes>
      <leafValues>
        -1.9888325035572052e-01 6.0963743925094604e-01</leafValues></_>
    <_>
      <internalNodes>
        0 -1 146764 -1.2514130212366581e-02</internalNodes>
      <leafValues>
        3.8132163882255554e-01 -3.3344268798828125e-01</leafValues></_>
    <_>
      <internalNodes>
        0 -1 110307 8.7456386536359787e-03</internalNodes>
      <leafValues>
        -2.6483377814292908e-01 4.5489788055419922e-01</leafValues></_>
    <_>
      <internalNodes>
        0 -1 95699 -4.8594633117318153e-03</internalNodes>
      <leafValues>
        1.2760034203529358e-01 -8.7257742881774902e-01</leafValues></_>
    <_>
      <internalNodes>
        0 -1 150486 1.5746657736599445e-03</internalNodes>
      <leafValues>
        -2.9772195219993591e-01 4.3677628040313721e-01</leafValues></_>
    <_>
      <internalNodes>
        0 -1 160667 -5.8795716613531113e-03</internalNodes>
      <leafValues>
        -5.8432853221893311e-01 2.0312112569808960e-01</leafValues></_>
    <_>
      <internalNodes>
        0 -1 93676 -4.2843855917453766e-03</internalNodes>
      <leafValues>
        6.3276606798171997e-01 -1.7042917013168335e-01</leafValues></_>
    <_>
      <internalNodes>
        0 -1 119611 -1.6661586414556950e-05</internalNodes>
      <leafValues>
        2.5478342175483704e-01 -4.9670115113258362e-01</leafValues></_>
    <_>
      <internalNodes>
        0 -1 119887 -1.4738695463165641e-03</internalNodes>
      <leafValues>
        -7.2648930549621582e-01 1.4584742486476898e-01</leafValues></_>
    <_>
      <internalNodes>
        0 -1 35583 4.8199361190199852e-03</internalNodes>
      <leafValues>
        -2.0085841417312622e-01 5.9238749742507935e-01</leafValues></_>
    <_>
      <internalNodes>
        0 -1 129623 6.1439424753189087e-02</internalNodes>
      <leafValues>
        -1.5697382390499115e-01 6.7631739377975464e-01</leafValues></_></weakClassifiers></stage12>
</opencv_storage>
