<?xml version="1.0"?>
<opencv_storage>
<stage13>
  <maxWeakCount>12</maxWeakCount>
  <stageThreshold>-6.2734097242355347e-01</stageThreshold>
  <weakClassifiers>
    <_>
      <internalNodes>
        0 -1 124744 4.0073981508612633e-03</internalNodes>
      <leafValues>
        -4.4606414437294006e-01 4.3993636965751648e-01</leafValues></_>
    <_>
      <internalNodes>
        0 -1 123395 4.7877421602606773e-03</internalNodes>
      <leafValues>
        -4.8544248938560486e-01 2.6732784509658813e-01</leafValues></_>
    <_>
      <internalNodes>
        0 -1 119343 -5.1793260499835014e-03</internalNodes>
      <leafValues>
        3.9209261536598206e-01 -3.4530287981033325e-01</leafValues></_>
    <_>
      <internalNodes>
        0 -1 78224 3.2317633740603924e-03</internalNodes>
      <leafValues>
        -1.9771641492843628e-01 5.5935603380203247e-01</leafValues></_>
    <_>
      <internalNodes>
        0 -1 135221 5.2229061722755432e-02</internalNodes>
      <leafValues>
        -2.4132928252220154e-01 4.9069869518280029e-01</leafValues></_>
    <_>
      <internalNodes>
        0 -1 119597 -2.0736083388328552e-03</internalNodes>
      <leafValues>
        5.2087187767028809e-01 -1.9147290289402008e-01</leafValues></_>
    <_>
      <internalNodes>
        0 -1 125757 -1.1612589332798962e-05</internalNodes>
      <leafValues>
        2.6197025179862976e-01 -4.9609449505805969e-01</leafValues></_>
    <_>
      <internalNodes>
        0 -1 101689 1.1516227386891842e-03</internalNodes>
      <leafValues>
        -2.2055830061435699e-01 5.5209898948669434e-01</leafValues></_>
    <_>
      <internalNodes>
        0 -1 137618 3.9841153193265200e-04</internalNodes>
      <leafValues>
        -4.6145233511924744e-01 2.9042464494705200e-01</leafValues></_>
    <_>
      <internalNodes>
        0 -1 43622 -2.5673907995223999e-01</internalNodes>
      <leafValues>
        6.8870800733566284e-01 -1.6617612540721893e-01</leafValues></_>
    <_>
      <internalNodes>
        0 -1 111428 1.3140985975041986e-03</internalNodes>
      <leafValues>
        1.7535594105720520e-01 -7.3842430114746094e-01</leafValues></_>
    <_>
      <internalNodes>
        0 -1 109704 -3.8432714063674212e-05</internalNodes>
      <leafValues>
        4.0211740136146545e-01 -3.3946818113327026e-01</leafValues></_></weakClassifiers></stage13>
</opencv_storage>
