<?xml version="1.0"?>
<opencv_storage>
<stage4>
  <maxWeakCount>7</maxWeakCount>
  <stageThreshold>-5.1497197151184082e-01</stageThreshold>
  <weakClassifiers>
    <_>
      <internalNodes>
        0 -1 117861 6.0977175598964095e-04</internalNodes>
      <leafValues>
        -3.8412699103355408e-01 6.6185569763183594e-01</leafValues></_>
    <_>
      <internalNodes>
        0 -1 119343 -5.5381320416927338e-03</internalNodes>
      <leafValues>
        7.2211414575576782e-01 -3.2105037569999695e-01</leafValues></_>
    <_>
      <internalNodes>
        0 -1 96055 -1.5204923693090677e-03</internalNodes>
      <leafValues>
        3.2697659730911255e-01 -6.5880858898162842e-01</leafValues></_>
    <_>
      <internalNodes>
        0 -1 116904 1.0303019732236862e-01</internalNodes>
      <leafValues>
        -4.3121892213821411e-01 5.4283410310745239e-01</leafValues></_>
    <_>
      <internalNodes>
        0 -1 111069 -2.3541785776615143e-04</internalNodes>
      <leafValues>
        3.2699561119079590e-01 -5.8657073974609375e-01</leafValues></_>
    <_>
      <internalNodes>
        0 -1 95192 -1.0405717184767127e-03</internalNodes>
      <leafValues>
        4.9711072444915771e-01 -4.3687307834625244e-01</leafValues></_>
    <_>
      <internalNodes>
        0 -1 129989 8.1388745456933975e-03</internalNodes>
      <leafValues>
        -4.9454101920127869e-01 4.1605728864669800e-01</leafValues></_></weakClassifiers></stage4>
</opencv_storage>
